[[-1.        ]
 [ 0.97308915]
 [-0.97905849]
 [ 0.78532738]
 [ 0.78335742]
 [ 1.        ]
 [ 0.99999974]
 [ 0.22543096]
 [ 0.9809643 ]
 [ 1.        ]
 [ 0.99877664]
 [-0.82028699]
 [-0.98561048]
 [ 0.99294185]
 [ 0.99975843]
 [-1.        ]
 [ 0.9999986 ]
 [ 0.99999909]
 [ 0.99945164]
 [ 1.        ]
 [ 0.99995149]
 [ 0.998835  ]
 [ 0.99999316]
 [-0.99999997]
 [-0.99981904]
 [ 0.98399323]
 [ 1.        ]
 [ 0.98777587]
 [-0.99681435]
 [-0.98239787]
 [-0.95996006]
 [ 0.68981142]
 [-1.        ]
 [ 1.        ]
 [ 0.99923741]
 [ 0.99999997]
 [ 0.99962776]
 [ 0.63224825]
 [ 0.99928066]
 [ 0.99397872]
 [ 0.99999842]
 [-1.        ]
 [ 1.        ]
 [ 0.99999368]
 [ 1.        ]
 [ 0.99838355]
 [-1.        ]
 [-0.97947811]
 [ 0.99997757]
 [ 0.99999784]
 [ 0.99999998]
 [ 1.        ]
 [ 0.93993301]
 [ 0.86793344]
 [-0.99947165]
 [ 0.94737545]
 [-0.00492994]
 [ 0.99999625]
 [ 0.99999954]
 [-1.        ]
 [ 0.97286151]
 [-0.93178783]
 [ 0.28123565]
 [-0.91998929]
 [ 0.99996574]
 [-1.        ]
 [ 1.        ]
 [ 0.9999996 ]
 [ 0.99999996]
 [-0.99962207]
 [ 1.        ]
 [-0.99999993]
 [-0.99999966]
 [ 0.86055979]
 [ 0.99999992]
 [ 0.99990395]
 [ 0.99626873]
 [-0.93193548]
 [-0.99999931]
 [-0.99978763]
 [ 0.99936846]
 [ 0.99999993]
 [ 0.99994863]
 [ 0.99998906]
 [ 0.98799477]
 [ 0.93642813]
 [ 0.99991693]
 [ 0.99999888]
 [ 1.        ]
 [-0.99993639]
 [ 0.90797264]
 [ 1.        ]
 [-0.9384813 ]
 [ 0.99999589]
 [ 0.69695213]
 [-0.99999442]
 [ 1.        ]
 [ 0.99999961]
 [-0.6297589 ]
 [ 0.98458074]]