[[-1.        ]
 [ 0.91708729]
 [ 0.90465528]
 [ 0.87971396]
 [ 0.57314642]
 [ 1.        ]
 [ 0.99999495]
 [-0.36423829]
 [ 0.97840808]
 [ 1.        ]
 [ 0.38769541]
 [ 0.15114322]
 [-0.98913251]
 [ 0.39584925]
 [ 0.99999643]
 [-1.        ]
 [ 0.99970509]
 [ 0.99996156]
 [ 0.99999885]
 [ 0.99999999]
 [ 0.99796706]
 [ 0.99554937]
 [ 0.99999999]
 [-0.9999999 ]
 [-0.86187565]
 [ 0.99919585]
 [ 1.        ]
 [ 0.99999991]
 [-0.99908753]
 [-0.86011335]
 [-0.81606727]
 [ 0.99822611]
 [-0.99999994]
 [ 1.        ]
 [ 0.99474657]
 [ 1.        ]
 [ 0.99947697]
 [ 0.97372665]
 [ 0.99885546]
 [ 0.97241504]
 [ 0.99999987]
 [-1.        ]
 [ 0.99999999]
 [ 0.99999997]
 [ 1.        ]
 [-0.52508045]
 [-1.        ]
 [ 0.85403295]
 [ 0.99999889]
 [ 0.97559858]
 [ 1.        ]
 [ 1.        ]
 [ 0.77578083]
 [ 0.8624517 ]
 [-0.9994183 ]
 [ 0.99993416]
 [-0.95454014]
 [ 0.98664271]
 [ 1.        ]
 [-1.        ]
 [-0.38322075]
 [-0.99930094]
 [-0.83904649]
 [ 0.99991119]
 [ 0.99999874]
 [-0.99999992]
 [ 1.        ]
 [ 1.        ]
 [ 1.        ]
 [-0.32028301]
 [ 1.        ]
 [-0.99999999]
 [-0.99999917]
 [ 0.99999457]
 [ 0.99999998]
 [ 0.99999927]
 [ 0.99811304]
 [-0.9377265 ]
 [-0.999981  ]
 [-0.99927502]
 [ 0.99851049]
 [ 1.        ]
 [ 1.        ]
 [ 0.999999  ]
 [ 0.8972372 ]
 [ 1.        ]
 [ 0.9999999 ]
 [ 0.99877596]
 [ 1.        ]
 [-0.9966277 ]
 [ 0.98462392]
 [ 1.        ]
 [ 0.97348272]
 [ 0.99989157]
 [ 0.99893037]
 [-0.99999855]
 [ 1.        ]
 [ 0.99999999]
 [ 0.90744686]
 [ 0.99796832]]