[[-1.        ]
 [ 0.9711005 ]
 [-0.99998259]
 [ 0.99901213]
 [-0.99666564]
 [ 1.        ]
 [ 0.99999995]
 [ 0.99995977]
 [ 0.99999407]
 [ 1.        ]
 [ 0.99995548]
 [-0.69001306]
 [-0.87909468]
 [ 0.69646808]
 [ 0.99999995]
 [-1.        ]
 [ 0.99980536]
 [ 0.99995975]
 [ 0.99997733]
 [ 1.        ]
 [ 0.99944817]
 [ 0.99999539]
 [ 0.99999907]
 [-0.99999999]
 [-0.99923538]
 [ 0.99940281]
 [ 1.        ]
 [ 0.99993035]
 [-0.95061703]
 [-0.74744393]
 [ 0.71991385]
 [ 0.97386938]
 [-0.99999974]
 [ 1.        ]
 [ 0.9999939 ]
 [ 1.        ]
 [ 0.98741465]
 [ 0.99999045]
 [ 0.99984361]
 [ 0.99991938]
 [ 0.99999754]
 [-1.        ]
 [ 1.        ]
 [ 0.99999999]
 [ 1.        ]
 [ 0.86265795]
 [-1.        ]
 [ 0.96784276]
 [ 0.9999996 ]
 [ 0.99994105]
 [ 1.        ]
 [ 1.        ]
 [ 0.99906803]
 [ 0.99939027]
 [-0.99999886]
 [ 0.42062894]
 [ 0.76340546]
 [ 0.99987566]
 [ 0.99999942]
 [-1.        ]
 [ 0.99260208]
 [ 0.41938132]
 [ 0.99416444]
 [ 0.97740685]
 [ 0.99990217]
 [-0.99999997]
 [ 1.        ]
 [ 0.99999998]
 [ 0.99997171]
 [-0.99984071]
 [ 1.        ]
 [-0.99999958]
 [-1.        ]
 [-0.99884354]
 [ 1.        ]
 [ 0.9998044 ]
 [ 0.99497182]
 [ 0.95305091]
 [-0.99999999]
 [ 0.9563293 ]
 [ 0.99999997]
 [ 0.99999977]
 [ 0.99998327]
 [ 0.9999991 ]
 [ 0.99891092]
 [ 0.99999935]
 [ 0.99999999]
 [ 0.99998605]
 [ 1.        ]
 [-0.99999442]
 [-0.51926675]
 [ 1.        ]
 [-0.90903671]
 [ 0.99999645]
 [ 0.99875883]
 [-0.99996688]
 [ 1.        ]
 [ 0.99999995]
 [-0.83385045]
 [ 0.99948196]]