[[-1.        ]
 [ 0.99458237]
 [-0.99625992]
 [ 0.9962585 ]
 [-0.77740222]
 [ 1.        ]
 [ 0.99999977]
 [ 0.73992946]
 [ 0.99998885]
 [ 1.        ]
 [ 0.99994766]
 [ 0.9997966 ]
 [-0.99997241]
 [ 0.99993633]
 [ 0.99999945]
 [-1.        ]
 [ 0.79512774]
 [ 0.99663358]
 [ 0.99999918]
 [ 0.99999999]
 [ 0.99999989]
 [ 0.99999729]
 [ 0.99999956]
 [-1.        ]
 [ 0.15287667]
 [ 0.99999701]
 [ 1.        ]
 [-0.97781857]
 [-0.93800353]
 [-0.99191574]
 [ 0.98825475]
 [-0.52282374]
 [-0.99999997]
 [ 1.        ]
 [ 0.99748603]
 [ 1.        ]
 [ 0.9560691 ]
 [ 0.99822083]
 [ 0.99977684]
 [ 0.9855578 ]
 [ 0.99998014]
 [-1.        ]
 [ 1.        ]
 [ 0.99999937]
 [ 0.99999997]
 [ 0.99819542]
 [-1.        ]
 [-0.99851876]
 [ 0.99998361]
 [ 0.99991979]
 [ 1.        ]
 [ 1.        ]
 [-0.99310953]
 [ 0.98440971]
 [-0.9999985 ]
 [ 0.73337894]
 [-0.99146761]
 [ 0.99992528]
 [ 0.9997426 ]
 [-0.99999997]
 [ 0.9999381 ]
 [-0.67450105]
 [-0.98278961]
 [ 0.99999759]
 [ 0.99999689]
 [-0.99999489]
 [ 1.        ]
 [ 0.99999997]
 [ 0.99999995]
 [-1.        ]
 [ 1.        ]
 [-1.        ]
 [-0.99999986]
 [-0.83460058]
 [ 0.99999997]
 [ 0.99997401]
 [ 0.99992174]
 [-0.99993377]
 [-0.99997433]
 [-0.98781863]
 [ 0.99999554]
 [ 0.99999996]
 [ 0.99992586]
 [ 0.99999912]
 [ 0.98700706]
 [ 0.99999996]
 [ 1.        ]
 [ 0.95432931]
 [ 0.99999999]
 [-0.99998924]
 [-0.28377519]
 [ 1.        ]
 [ 0.96210538]
 [ 0.99999275]
 [-0.92509684]
 [-0.99999794]
 [ 0.99999697]
 [ 0.99999997]
 [ 0.99961186]
 [ 0.56783938]]