[[-1.        ]
 [ 0.9965573 ]
 [-0.99999173]
 [ 0.95166852]
 [-0.99513329]
 [ 1.        ]
 [ 0.9999991 ]
 [ 0.99076787]
 [ 0.99593551]
 [ 1.        ]
 [ 0.99985767]
 [-0.9090014 ]
 [-0.99999839]
 [ 0.96784528]
 [ 0.99999572]
 [-1.        ]
 [ 0.97139613]
 [ 0.99994167]
 [ 0.99997489]
 [ 1.        ]
 [ 0.99999445]
 [ 0.99999996]
 [ 0.99998351]
 [-0.99999878]
 [-0.99171977]
 [ 0.99990384]
 [ 1.        ]
 [ 0.97650428]
 [-0.99713544]
 [-0.83791139]
 [ 0.85785417]
 [ 0.90954117]
 [-1.        ]
 [ 1.        ]
 [ 0.99998806]
 [ 0.99999999]
 [ 0.99425905]
 [ 0.99999001]
 [ 0.91738974]
 [ 0.99947727]
 [ 0.99993457]
 [-1.        ]
 [ 1.        ]
 [ 0.99999999]
 [ 0.99999846]
 [ 0.99997706]
 [-0.99999984]
 [ 0.72546228]
 [ 0.99998198]
 [ 0.99998737]
 [ 1.        ]
 [ 1.        ]
 [ 0.99565904]
 [-0.88770923]
 [-0.99999814]
 [-0.11166244]
 [-0.84783216]
 [ 0.99998523]
 [ 0.9999984 ]
 [-1.        ]
 [ 0.97518638]
 [-0.51627124]
 [ 0.14103353]
 [ 0.81419561]
 [ 0.99999706]
 [-0.99999463]
 [ 1.        ]
 [ 0.99999968]
 [ 0.99999975]
 [-0.9999996 ]
 [ 1.        ]
 [-0.99998203]
 [-0.99999999]
 [-0.99925208]
 [ 1.        ]
 [ 0.99999011]
 [ 0.87557482]
 [-0.00466866]
 [-0.99999927]
 [ 0.15971608]
 [ 1.        ]
 [ 0.99999931]
 [ 0.9999581 ]
 [ 0.9999947 ]
 [ 0.99960402]
 [ 0.9999923 ]
 [ 0.99999978]
 [ 0.67792856]
 [ 0.99999775]
 [-0.99667893]
 [ 0.76862118]
 [ 1.        ]
 [-0.86295118]
 [ 0.99999785]
 [ 0.9836837 ]
 [-0.9999281 ]
 [ 0.99994713]
 [ 0.99999956]
 [ 0.11180205]
 [ 0.99997036]]