[[-1.        ]
 [ 0.52790883]
 [-0.98754806]
 [-0.84742985]
 [ 0.85061698]
 [ 1.        ]
 [ 0.99997728]
 [-0.99391281]
 [ 0.68927941]
 [ 0.99999999]
 [ 0.88702977]
 [-0.99995893]
 [-0.93077331]
 [ 0.96105456]
 [ 0.9999215 ]
 [-1.        ]
 [ 0.99996178]
 [ 0.99965973]
 [ 0.99995978]
 [ 0.99999994]
 [ 0.99926622]
 [ 0.99370667]
 [ 0.99990238]
 [-0.99999995]
 [-0.99999367]
 [ 0.99626147]
 [ 1.        ]
 [ 0.99997861]
 [-0.99104337]
 [-0.99910258]
 [-0.99786259]
 [ 0.16009201]
 [-1.        ]
 [ 1.        ]
 [ 0.99978409]
 [ 1.        ]
 [ 0.9859843 ]
 [-0.7302186 ]
 [ 0.9594215 ]
 [ 0.99365534]
 [ 0.99999992]
 [-1.        ]
 [ 0.9999987 ]
 [ 0.99903651]
 [ 1.        ]
 [ 0.87743164]
 [-0.99999946]
 [ 0.96502538]
 [ 0.99999979]
 [ 0.99849485]
 [ 1.        ]
 [ 1.        ]
 [ 0.36430264]
 [ 0.9972261 ]
 [-0.99845124]
 [ 0.99999953]
 [-0.44963456]
 [ 0.99937557]
 [ 0.99999961]
 [-1.        ]
 [ 0.81855762]
 [-0.99998448]
 [-0.23299416]
 [ 0.7781281 ]
 [ 0.99946089]
 [-1.        ]
 [ 1.        ]
 [ 0.99999993]
 [ 0.99999882]
 [-0.83126303]
 [ 1.        ]
 [-1.        ]
 [-0.99990077]
 [ 0.98424741]
 [ 0.99999998]
 [ 0.98836228]
 [ 0.99981437]
 [-0.87293045]
 [-0.99999988]
 [-0.99947546]
 [ 0.99798456]
 [ 0.99997626]
 [ 0.9996229 ]
 [ 0.99998303]
 [ 0.99997789]
 [ 0.9984264 ]
 [ 1.        ]
 [ 0.99994653]
 [ 1.        ]
 [-0.99996817]
 [ 0.79520754]
 [ 1.        ]
 [-0.99889348]
 [ 0.99993353]
 [ 0.97692264]
 [-1.        ]
 [ 1.        ]
 [ 1.        ]
 [-0.31305571]
 [-0.40417733]]