[[-0.99999998]
 [ 0.99988175]
 [-0.99836791]
 [ 0.98872923]
 [ 0.9587252 ]
 [ 1.        ]
 [ 0.99965394]
 [ 0.7500915 ]
 [ 0.99713827]
 [ 1.        ]
 [ 0.99645744]
 [-0.99978504]
 [-0.99977071]
 [ 0.99732205]
 [ 0.99999938]
 [-1.        ]
 [ 0.99999962]
 [ 0.9999999 ]
 [ 0.99999993]
 [ 1.        ]
 [ 0.99999995]
 [ 0.9999473 ]
 [ 0.99996956]
 [-1.        ]
 [-0.9999671 ]
 [ 0.99998722]
 [ 1.        ]
 [ 0.77372332]
 [ 0.96216045]
 [-0.45381472]
 [ 0.98856651]
 [-0.89999113]
 [-0.99999866]
 [ 1.        ]
 [ 0.99995593]
 [ 0.99999998]
 [ 0.99974463]
 [ 0.9665752 ]
 [ 0.99991358]
 [ 0.99944578]
 [ 0.99999413]
 [-1.        ]
 [ 0.99999998]
 [ 0.99746972]
 [ 1.        ]
 [ 0.76178749]
 [-0.99999996]
 [-0.52618712]
 [ 0.99999576]
 [ 0.99892341]
 [ 1.        ]
 [ 1.        ]
 [ 0.40862587]
 [ 0.99996152]
 [-0.99968984]
 [ 0.79369723]
 [-0.99436169]
 [ 0.99999893]
 [ 0.99999255]
 [-1.        ]
 [ 0.97941593]
 [-0.98953019]
 [ 0.35483399]
 [ 0.99960078]
 [ 0.99999987]
 [-0.99999992]
 [ 1.        ]
 [ 0.99999999]
 [ 0.99987369]
 [-0.96534206]
 [ 1.        ]
 [-0.99953352]
 [-0.99999999]
 [-0.16625617]
 [ 1.        ]
 [-0.85428651]
 [ 0.99999958]
 [ 0.15315612]
 [-0.99999975]
 [ 0.9895181 ]
 [ 0.99999606]
 [ 0.99999323]
 [ 0.99995412]
 [ 0.99999289]
 [ 0.99997466]
 [ 0.99992415]
 [ 1.        ]
 [ 0.99988331]
 [ 1.        ]
 [-0.99997097]
 [-0.9037527 ]
 [ 1.        ]
 [-0.99924112]
 [ 0.99998976]
 [ 0.65856198]
 [-1.        ]
 [ 0.99999961]
 [ 1.        ]
 [ 0.93253387]
 [ 0.94361183]]